{
  "in_shape": [
    1,
    null,
    264,
    8
  ],
  "layers": [
    {
      "type": "conv2d",
      "shape": [
        1,
        null,
        264,
        8
      ],
      "kernel_size_time": 3,
      "kernel_size_feature": 39,
      "dilation": 1,
      "strides": 1,
      "num_filters_in": 8,
      "num_features_in": 264,
      "num_filters_out": 8,
      "padding": "same",
      "weights": [
        [
          [
            [
              [
                0.027739135548472404,
                0.10568021237850189,
                -0.02003670297563076,
                0.006172173656523228,
                0.0035834242589771748,
                -0.04165257140994072,
                -0.02619563415646553,
                0.0011352262226864696
              ],
              [
                -0.06527882069349289,
                0.043211258947849274,
                -0.0068840812891721725,
                0.04235319048166275,
                -0.0021991641260683537,
                -0.027975907549262047,
                0.027579467743635178,
                -0.02603963017463684
              ],
              [
                0.01735915057361126,
                0.03157152235507965,
                -0.0027795573696494102,
                0.050040353089571,
                0.01418937649577856,
                -0.017889775335788727,
                0.024472974240779877,
                0.01236669346690178
              ],
              [
                0.005716509185731411,
                -0.02121170423924923,
                -0.030266471207141876,
                -0.016867773607373238,
                0.09905806183815002,
                -0.02640365995466709,
                -0.04763196036219597,
                0.012042973190546036
              ],
              [
                -0.031202977523207664,
                -0.03470173478126526,
                0.044921137392520905,
                -0.026321636512875557,
                -0.01607699878513813,
                -0.003893957007676363,
                -0.059381626546382904,
                0.039258670061826706
              ],
              [
                0.004470933228731155,
                -0.01825394108891487,
                -0.002866461407393217,
                0.034552671015262604,
                0.008502824231982231,
                -0.015769112855196,
                -0.044361889362335205,
                0.004102724604308605
              ],
              [
                -0.0204854067414999,
                -0.024736527353525162,
                -0.04702744632959366,
                -0.016209537163376808,
                0.0011916806688532233,
                -0.022478094324469566,
                -0.005131746642291546,
                -0.0041204881854355335
              ],
              [
                -0.04616067185997963,
                -0.026071934029459953,
                0.0034257187508046627,
                -0.03742639347910881,
                -0.005161905661225319,
                0.023594625294208527,
                0.016260646283626556,
                0.04579637944698334
              ]
            ],
            [
              [
                0.019412191584706306,
                -0.02358202449977398,
                -0.010464933700859547,
                -0.004242883063852787,
                0.026988418772816658,
                0.004946524277329445,
                -0.04325639083981514,
                -0.004371369257569313
              ],
              [
                -0.021994974464178085,
                0.026080112904310226,
                0.005145558156073093,
                0.05818983167409897,
                -0.004440690390765667,
                0.0059467824175953865,
                0.024095183238387108,
                -0.026010222733020782
              ],
              [
                0.04217517748475075,
                0.0038942403625696898,
                -0.04508236423134804,
                0.018452072516083717,
                0.03207433223724365,
                -0.03744838386774063,
                -0.008354154415428638,
                -0.007693960331380367
              ],
              [
                0.03723430261015892,
                -0.01111335214227438,
                -0.02029329538345337,
                0.05309392139315605,
                0.08024100959300995,
                0.02952631190419197,
                -0.01996759884059429,
                -0.008526621386408806
              ],
              [
                -0.0013463181676343083,
                -0.0007092311279848218,
                0.016731292009353638,
                0.0034274656791239977,
                -0.0019508495461195707,
                -0.0024448384065181017,
                0.021894214674830437,
                0.023382732644677162
              ],
              [
                -0.0016814286354929209,
                -0.011552810668945312,
                -0.012473711743950844,
                0.021077996119856834,
                0.03728287294507027,
                0.014065743423998356,
                0.0017932900227606297,
                -0.015003095380961895
              ],
              [
                -0.0013210789766162634,
                -0.023558514192700386,
                -0.01873387210071087,
                0.04118061438202858,
                0.03852318599820137,
                -0.017486825585365295,
                -0.00459163635969162,
                -0.012194006703794003
              ],
              [
                -0.04549788683652878,
                -0.006765557453036308,
                -0.002995863324031234,
                -0.03570527210831642,
                0.02717197872698307,
                0.011155849322676659,
                0.056534528732299805,
                -0.03052496537566185
              ]
            ],
            [
              [
                -0.020987320691347122,
                -0.003649749793112278,
                -0.018720844760537148,
                -0.025793101638555527,
                0.017010534182190895,
                -0.022269759327173233,
                0.026947958394885063,
                0.0011665800120681524
              ],
              [
                -0.014774763025343418,
                0.06272122263908386,
                -0.01730257086455822,
                0.00875092949718237,
                -0.014417228288948536,
                0.007752825040370226,
                0.017036864534020424,
                -0.02736709825694561
              ],
              [
                0.013798095285892487,
                0.04893988370895386,
                -0.01999158039689064,
                0.024971989914774895,
                0.008515398018062115,
                0.0002025076828431338,
                0.0175258107483387,
                -0.0029685909394174814
              ],
              [
                0.03462528437376022,
                0.024489514529705048,
                0.026777861639857292,
                -0.0005097204702906311,
                0.02973533794283867,
                0.038715776056051254,
                -0.01926196739077568,
                0.02088995836675167
              ],
              [
                -0.019724424928426743,
                -0.013921601697802544,
                0.02451947145164013,
                -0.006555221509188414,
                -0.05162721872329712,
                -0.008990174159407616,
                0.043233472853899,
                0.06665061414241791
              ],
              [
                -0.0002118131087627262,
                -0.02100556530058384,
                0.0158232469111681,
                -0.054547268897295,
                0.004885747097432613,
                0.030593225732445717,
                0.0030572456307709217,
                0.028450727462768555
              ],
              [
                0.011287311092019081,
                -0.005580648314207792,
                0.03949303179979324,
                -0.03446333482861519,
                0.02008056826889515,
                0.0062556578777730465,
                -0.01829775981605053,
                -0.005537138786166906
              ],
              [
                -0.016542959958314896,
                -0.015721119940280914,
                0.01211387850344181,
                0.020140230655670166,
                -0.014627251774072647,
                0.032419927418231964,
                0.05337928608059883,
                -0.012078089639544487
              ]
            ],
            [
              [
                0.0071990578435361385,
                -0.017127597704529762,
                0.0028435038402676582,
                0.006954003591090441,
                0.014739058911800385,
                -0.013588282279670238,
                -0.004516731481999159,
                0.0013717258116230369
              ],
              [
                -0.017428558319807053,
                -0.02739739790558815,
                0.010386837646365166,
                0.01000220701098442,
                0.0016071470454335213,
                -0.004033357370644808,
                -0.006480503361672163,
                -0.00823630765080452
              ],
              [
                -0.0009417234687134624,
                -0.05362802371382713,
                -0.026980485767126083,
                0.0412626713514328,
                -0.017914509400725365,
                -0.0731615275144577,
                0.008322425186634064,
                -0.0336918979883194
              ],
              [
                0.0412609726190567,
                0.029955925419926643,
                -0.014735757373273373,
                0.011130568571388721,
                0.0036025953013449907,
                -0.01613503322005272,
                -0.029175424948334694,
                -0.0067282263189554214
              ],
              [
                -0.0418422557413578,
                0.01904459297657013,
                0.026461077854037285,
                -0.02010858990252018,
                -0.04676336795091629,
                0.018701991066336632,
                0.07457450777292252,
                0.019066745415329933
              ],
              [
                -0.02847038209438324,
                -0.004380329512059689,
                -0.018401406705379486,
                0.005937815643846989,
                0.012316873297095299,
                -0.004024468827992678,
                -0.052323855459690094,
                0.010417163372039795
              ],
              [
                0.0039812130853533745,
                0.0007926833932287991,
                -0.03707215562462807,
                0.022527188062667847,
                0.0024119403678923845,
                -0.017036624252796173,
                0.007792805787175894,
                -0.021426888182759285
              ],
              [
                0.03432067856192589,
                0.0025050512049347162,
                0.005862894933670759,
                -0.024275245144963264,
                -0.005191176198422909,
                0.030657010152935982,
                -0.014906591735780239,
                0.022468196228146553
              ]
            ],
            [
              [
                0.014101842418313026,
                0.02365563064813614,
                0.010287659242749214,
                0.018853817135095596,
                -0.013849949464201927,
                0.0024473140947520733,
                -0.04654290899634361,
                -0.004823949187994003
              ],
              [
                -0.00442526675760746,
                -0.002718989970162511,
                0.030947670340538025,
                -0.027872774749994278,
                -0.009932732209563255,
                0.02054155245423317,
                -0.00022825915948487818,
                0.0005160666187293828
              ],
              [
                0.005417365115135908,
                -0.018920503556728363,
                4.883298242930323e-05,
                0.04008832201361656,
                -0.015996383503079414,
                -0.057943589985370636,
                0.04945256561040878,
                -0.012472230941057205
              ],
              [
                0.03360852599143982,
                0.04084343835711479,
                -0.02627657540142536,
                -0.0025897673331201077,
                0.009830765426158905,
                -0.024285465478897095,
                -0.011284450069069862,
                -0.023862363770604134
              ],
              [
                -0.054071929305791855,
                -0.021042190492153168,
                0.0761798620223999,
                -0.03413290157914162,
                -0.044650912284851074,
                -0.028335226699709892,
                0.08808613568544388,
                -0.03801770135760307
              ],
              [
                -0.04913581907749176,
                0.015141807496547699,
                -0.005919758230447769,
                -0.0033952672965824604,
                -0.02498564124107361,
                0.03099280595779419,
                0.016661766916513443,
                0.009334845468401909
              ],
              [
                -0.018886277452111244,
                0.006985675077885389,
                -0.025524362921714783,
                0.012609656900167465,
                0.02058391086757183,
                0.02712349034845829,
                -0.02285890467464924,
                0.004983578342944384
              ],
              [
                0.010231567546725273,
                -0.03462395444512367,
                -0.026491422206163406,
                -0.01959533803164959,
                0.021022984758019447,
                0.005081138573586941,
                -0.02094491757452488,
                -0.026229681447148323
              ]
            ],
            [
              [
                0.009842460975050926,
                0.035903140902519226,
                0.0035526000428944826,
                -0.04027523845434189,
                0.007026896812021732,
                -0.014791391789913177,
                0.034883398562669754,
                0.007383102551102638
              ],
              [
                -0.02080724574625492,
                0.0283688735216856,
                0.014562717638909817,
                -0.014890776015818119,
                0.016162792220711708,
                0.04481762647628784,
                -0.010650450363755226,
                0.003355200169607997
              ],
              [
                0.012549970299005508,
                0.0017728658858686686,
                -0.0063522192649543285,
                0.020107872784137726,
                0.025219522416591644,
                0.011190298944711685,
                -0.0028261435218155384,
                0.0041670179925858974
              ],
              [
                0.012782917357981205,
                0.02434687130153179,
                -0.004104717634618282,
                -0.020302534103393555,
                0.028323469683527946,
                -0.03556599095463753,
                0.03399895504117012,
                0.022762473672628403
              ],
              [
                0.0431264229118824,
                0.005643241573125124,
                -0.004891751799732447,
                -0.0461583137512207,
                -0.02026624232530594,
                0.011377844959497452,
                -0.0013251464115455747,
                0.02864793874323368
              ],
              [
                -0.008395923301577568,
                -0.019148653373122215,
                -0.00771469809114933,
                -0.02888108417391777,
                -0.022543881088495255,
                0.014967197552323341,
                -0.014869313687086105,
                0.048162560909986496
              ],
              [
                -0.020684458315372467,
                -0.02374945394694805,
                0.03974732756614685,
                -0.02656831033527851,
                -0.007843724451959133,
                0.0719037726521492,
                -0.0353175513446331,
                0.011581447906792164
              ],
              [
                0.004146788734942675,
                -0.015291361138224602,
                -0.011966099962592125,
                0.03583990037441254,
                -0.0032866743858903646,
                -0.014212398789823055,
                -0.009014545008540154,
                -0.02504687011241913
              ]
            ],
            [
              [
                0.01621430739760399,
                -0.008182252757251263,
                0.010388112626969814,
                -0.056661952286958694,
                0.005373959429562092,
                -0.02340462990105152,
                -0.026541998609900475,
                0.003970213700085878
              ],
              [
                -0.009906980209052563,
                -0.01638604886829853,
                0.02200905792415142,
                -0.002003713510930538,
                -0.007501604501157999,
                -0.023120589554309845,
                0.013386653736233711,
                -0.014941898174583912
              ],
              [
                0.04485335946083069,
                -0.03250964730978012,
                -0.0005958927213214338,
                0.017812956124544144,
                0.01687869057059288,
                -0.015401829034090042,
                -0.01787744276225567,
                -0.011315340176224709
              ],
              [
                0.011812723241746426,
                0.003983724396675825,
                -0.013200325891375542,
                -0.017801648005843163,
                0.027235249057412148,
                -0.048879824578762054,
                0.036072518676519394,
                -0.020047947764396667
              ],
              [
                0.004482768476009369,
                -0.05946284532546997,
                -0.07913099229335785,
                -0.005444684997200966,
                0.03560708090662956,
                -0.030999036505818367,
                -0.02362784557044506,
                -0.007618083618581295
              ],
              [
                -0.009179603308439255,
                0.0047707147896289825,
                -0.009172913618385792,
                0.06016567721962929,
                -0.009739873930811882,
                0.02611676976084709,
                0.02974727936089039,
                -0.000239200729993172
              ],
              [
                0.016938937827944756,
                -0.00983087532222271,
                -0.004665440414100885,
                0.017030775547027588,
                -0.022753706201910973,
                -0.016183869913220406,
                -0.004464751109480858,
                0.00668131560087204
              ],
              [
                0.022852115333080292,
                -0.005796586163341999,
                0.0215006023645401,
                -0.014896491542458534,
                -0.0007233787328004837,
                0.013361911289393902,
                -0.05176405981183052,
                0.009754525497555733
              ]
            ],
            [
              [
                -0.03199499472975731,
                -0.0007625265279784799,
                0.02515113353729248,
                -0.0019451166735962033,
                -0.02314925752580166,
                0.0030652934219688177,
                -0.023154307156801224,
                0.008402840234339237
              ],
              [
                -0.021828480064868927,
                -0.019533591344952583,
                0.009938950650393963,
                0.006902795284986496,
                -0.016133593395352364,
                0.031929969787597656,
                -0.04603000357747078,
                0.0014534483198076487
              ],
              [
                0.056115422397851944,
                0.0032497006468474865,
                0.00646838778629899,
                -0.0033658219035714865,
                -0.007846998050808907,
                0.02525465562939644,
                -0.009928688406944275,
                -0.030553216114640236
              ],
              [
                -0.006683024577796459,
                0.03596784546971321,
                -0.01717749983072281,
                0.009368878789246082,
                0.012448467314243317,
                -0.03548699617385864,
                0.02133595570921898,
                -0.05828380957245827
              ],
              [
                -0.00410388084128499,
                -0.018205562606453896,
                -0.06439322233200073,
                0.03246142342686653,
                0.008745221421122551,
                -0.006446328945457935,
                -0.013992334716022015,
                -0.031647369265556335
              ],
              [
                0.0001199244215968065,
                -0.0074121346697211266,
                0.04442066326737404,
                0.035922661423683167,
                0.01723719760775566,
                -0.025586329400539398,
                0.03878534585237503,
                -0.030599044635891914
              ],
              [
                0.007648602593690157,
                0.02867000363767147,
                -0.0021676847245544195,
                0.023373572155833244,
                -0.008891891688108444,
                0.03201688081026077,
                -0.01691611483693123,
                0.04383987933397293
              ],
              [
                -0.031376101076602936,
                -0.020520349964499474,
                -0.008081154897809029,
                -0.005720099899917841,
                0.002861873945221305,
                -0.01743496209383011,
                -0.045265138149261475,
                0.005930768325924873
              ]
            ],
            [
              [
                -0.008173065260052681,
                0.009590692818164825,
                -0.022989679127931595,
                -0.037036165595054626,
                -0.019189342856407166,
                -0.024464759975671768,
                -0.0211483221501112,
                0.00033961422741413116
              ],
              [
                -0.021222319453954697,
                0.0006931489333510399,
                -0.00016030456754378974,
                -0.054314177483320236,
                -0.004241642542183399,
                0.023936936631798744,
                0.0012396600795909762,
                -0.002381895435974002
              ],
              [
                -0.021696411073207855,
                -0.010069908574223518,
                0.0426904670894146,
                -0.03386206924915314,
                0.008680528961122036,
                -0.00537900859490037,
                -0.02248273603618145,
                0.011943629942834377
              ],
              [
                0.0003183064400218427,
                0.028878720477223396,
                -0.012431428767740726,
                0.004427161067724228,
                -0.018691176548600197,
                -0.029571114107966423,
                0.050556499511003494,
                -0.002809598809108138
              ],
              [
                0.019944220781326294,
                0.009901707991957664,
                0.01952080801129341,
                -0.014242101460695267,
                0.012322627939283848,
                0.003459405619651079,
                -0.00169962621293962,
                0.027362879365682602
              ],
              [
                0.034772757440805435,
                0.005321491975337267,
                0.03126058354973793,
                0.015307269059121609,
                0.0066629499197006226,
                0.04421498253941536,
                0.03687635436654091,
                0.016692982986569405
              ],
              [
                -0.03467055782675743,
                -0.014540841802954674,
                0.036054860800504684,
                -0.005912346765398979,
                -0.01261951308697462,
                0.0059097944758832455,
                -0.014070963487029076,
                0.037998344749212265
              ],
              [
                -0.012195481918752193,
                -0.025861045345664024,
                -0.013921555131673813,
                -0.03683930262923241,
                0.007648858707398176,
                0.011483990587294102,
                0.008333932608366013,
                0.017598681151866913
              ]
            ],
            [
              [
                -0.023783069103956223,
                -0.026830727234482765,
                -0.02433318831026554,
                0.018440889194607735,
                -0.004486501216888428,
                -0.022057654336094856,
                0.0003787995665334165,
                -0.0022374435793608427
              ],
              [
                -0.049291398376226425,
                -0.03278864920139313,
                -0.030546685680747032,
                0.029776355251669884,
                -0.006653063464909792,
                -0.014815845526754856,
                0.027490193024277687,
                -0.016298485919833183
              ],
              [
                -0.030117373913526535,
                -0.030765891075134277,
                -0.01787811517715454,
                0.00294481567107141,
                0.04724644869565964,
                -0.06153076887130737,
                0.016887888312339783,
                -0.010693715885281563
              ],
              [
                0.03774893283843994,
                -0.046765394508838654,
                0.034029532223939896,
                0.02867969498038292,
                -0.0009137971792370081,
                -0.03134041279554367,
                0.04207107797265053,
                -0.0022239924874156713
              ],
              [
                0.03939635679125786,
                -0.016553141176700592,
                -0.050902314484119415,
                0.014886985532939434,
                0.011481228284537792,
                -0.005531377624720335,
                -0.0034393267706036568,
                -0.02639945037662983
              ],
              [
                0.026782458648085594,
                -0.024893732741475105,
                -0.04811118543148041,
                -0.003333377419039607,
                -0.001041054492816329,
                -0.03339042887091637,
                -0.02318793162703514,
                -0.010985379107296467
              ],
              [
                -0.02883281745016575,
                0.00038522298564203084,
                0.020558621734380722,
                -0.03177633136510849,
                -0.033434636890888214,
                0.0038489880971610546,
                0.046257421374320984,
                -0.026284504681825638
              ],
              [
                0.0029452121816575527,
                -0.015049471519887447,
                -0.006440169643610716,
                -0.00090099434601143,
                -0.005692853592336178,
                0.006684624589979649,
                0.021886996924877167,
                0.021225739270448685
              ]
            ],
            [
              [
                -0.022898569703102112,
                -0.006761419586837292,
                0.004100194666534662,
                0.029781216755509377,
                -0.019682275131344795,
                -0.0374414324760437,
                0.00824427418410778,
                0.003570011118426919
              ],
              [
                -0.01572604849934578,
                -0.025676123797893524,
                -0.018268724903464317,
                -0.01907510496675968,
                -0.014523101039230824,
                0.033847875893116,
                0.0036672428250312805,
                -0.015438610687851906
              ],
              [
                -0.01052306778728962,
                0.05715373530983925,
                -0.04295971617102623,
                0.06276489794254303,
                -0.0031232284381985664,
                -0.004516294226050377,
                0.00468135392293334,
                -0.027565691620111465
              ],
              [
                0.001111013232730329,
                -0.0032295766286551952,
                0.018422814086079597,
                0.02360454946756363,
                -0.018283149227499962,
                -0.026317613199353218,
                0.043827980756759644,
                -0.02134145051240921
              ],
              [
                0.004763266071677208,
                -0.008710815571248531,
                -0.07289334386587143,
                0.016888273879885674,
                -0.02336478978395462,
                0.00022217757941689342,
                0.006725182756781578,
                -0.06387683749198914
              ],
              [
                0.037035126239061356,
                -0.014021252281963825,
                -0.036002326756715775,
                0.029871944338083267,
                0.013052647933363914,
                -0.044052377343177795,
                0.0041898139752447605,
                -0.004064494278281927
              ],
              [
                0.0008805293473415077,
                -0.0065807742066681385,
                0.010518562979996204,
                -0.01385590061545372,
                0.018862014636397362,
                -0.010091708041727543,
                0.030655741691589355,
                0.00035937229404225945
              ],
              [
                0.009619529359042645,
                0.018525319173932076,
                -0.03155454620718956,
                0.0281398706138134,
                -0.023515308275818825,
                -0.016667792573571205,
                0.025851396843791008,
                -0.004771815612912178
              ]
            ],
            [
              [
                -0.008768278174102306,
                0.004607196431607008,
                -0.024178912863135338,
                0.020351480692625046,
                -0.008526119403541088,
                -0.015797840431332588,
                0.01576678827404976,
                0.006996887736022472
              ],
              [
                -0.017101945355534554,
                0.00019575054466258734,
                0.00048531804350204766,
                -0.007780384737998247,
                -0.0037364978343248367,
                0.0438704788684845,
                -0.02948247641324997,
                0.004117574077099562
              ],
              [
                0.00010260640556225553,
                0.025433942675590515,
                0.02770705334842205,
                -0.01520967110991478,
                -0.013485139235854149,
                0.02696974389255047,
                -0.008450177498161793,
                0.019077152013778687
              ],
              [
                0.010019401088356972,
                -0.015127461403608322,
                0.024524157866835594,
                -0.05669504031538963,
                0.05123624578118324,
                0.01551809161901474,
                0.00754501111805439,
                0.016259854659438133
              ],
              [
                0.002171435160562396,
                -0.0036580348387360573,
                -0.019590696319937706,
                -0.02665911801159382,
                0.011605839245021343,
                -0.05774842947721481,
                0.005203223787248135,
                0.004678771365433931
              ],
              [
                0.03436373546719551,
                0.019636711105704308,
                0.02943788282573223,
                0.011868678964674473,
                0.009595935232937336,
                -0.009875333867967129,
                -0.0015641000354662538,
                0.012852504849433899
              ],
              [
                0.047837987542152405,
                -0.0125824473798275,
                0.002713005058467388,
                -0.002514883875846863,
                0.0218502189964056,
                0.011572384275496006,
                -0.01615116000175476,
                0.01813129149377346
              ],
              [
                0.003758038626983762,
                -0.019314302131533623,
                0.04986563324928284,
                0.014254817739129066,
                -0.023879455402493477,
                0.0020585337188094854,
                0.011867468245327473,
                -0.0032235831022262573
              ]
            ],
            [
              [
                0.0035433382727205753,
                -0.022325733676552773,
                -0.021167488768696785,
                -0.0022536986507475376,
                -0.00612220773473382,
                -0.039903055876493454,
                0.0392572358250618,
                -0.003914432134479284
              ],
              [
                -0.009048615582287312,
                -0.03356098011136055,
                0.028245385736227036,
                -0.010432012379169464,
                -0.03189193829894066,
                -0.005440488923341036,
                0.029836181551218033,
                0.01183414738625288
              ],
              [
                -0.03322398662567139,
                -0.05885125696659088,
                0.02752729319036007,
                -0.011564617045223713,
                -0.005191287491470575,
                0.00399167463183403,
                0.003914763685315847,
                -0.013185553252696991
              ],
              [
                0.002346860012039542,
                -0.0016779272118583322,
                0.01215987280011177,
                -0.03407447040081024,
                0.04645128175616264,
                -0.021349864080548286,
                -0.05804112181067467,
                -0.019869200885295868
              ],
              [
                0.0070873042568564415,
                -0.02047794871032238,
                0.01572682149708271,
                0.023350359871983528,
                0.010807033628225327,
                -0.00768234534189105,
                -0.0028874273411929607,
                0.012360193766653538
              ],
              [
                0.017770061269402504,
                0.01666095480322838,
                -0.020596519112586975,
                -0.0017472159815952182,
                0.0050267865881323814,
                -0.05713815987110138,
                -0.006392351817339659,
                -0.011589305475354195
              ],
              [
                0.031075241044163704,
                -0.03853997960686684,
                -0.028905857354402542,
                -0.015754077583551407,
                -0.006604660768061876,
                -0.012500308454036713,
                -0.01114459428936243,
                -0.01580364815890789
              ],
              [
                0.052680954337120056,
                -0.018082089722156525,
                0.019421761855483055,
                -0.013717656955122948,
                -0.00919558759778738,
                0.01674126647412777,
                -0.030124975368380547,
                0.004570306744426489
              ]
            ],
            [
              [
                -0.006379602011293173,
                -0.030793150886893272,
                -0.005773667246103287,
                0.021412590518593788,
                -0.019267255440354347,
                -0.02506282925605774,
                0.01657927967607975,
                -0.004183703567832708
              ],
              [
                -0.016831832006573677,
                -0.0038275651168078184,
                -0.0037201677914708853,
                0.024829288944602013,
                -0.04736035317182541,
                0.05586547404527664,
                -0.05493689700961113,
                0.01627085916697979
              ],
              [
                0.01009460911154747,
                -0.00521819805726409,
                0.00021823382121510804,
                0.025744998827576637,
                -0.03931885212659836,
                0.022780178114771843,
                -0.01666330173611641,
                -0.020723173394799232
              ],
              [
                0.0018629729747772217,
                0.03180859237909317,
                -0.013303732499480247,
                0.03675905615091324,
                -0.004776439163833857,
                -0.003013387555256486,
                0.008798261173069477,
                -0.026412254199385643
              ],
              [
                0.012110245414078236,
                0.006802667398005724,
                0.008143249899148941,
                -0.004002618603408337,
                -0.01743772067129612,
                -0.0057062129490077496,
                0.012811283580958843,
                -0.006922467146068811
              ],
              [
                0.011451167985796928,
                0.012008175253868103,
                -0.018926352262496948,
                -0.006259365007281303,
                -0.0006849451456218958,
                -0.01853301003575325,
                0.009833148680627346,
                -0.0012519322335720062
              ],
              [
                0.015177161432802677,
                0.011733232997357845,
                -0.005650879815220833,
                0.04458344727754593,
                0.009398097172379494,
                -0.01537269912660122,
                0.013346408493816853,
                -0.023575203493237495
              ],
              [
                0.023507123813033104,
                -0.02823280356824398,
                -0.06792002171278,
                -0.026670170947909355,
                -0.010470778681337833,
                0.006318751256912947,
                -0.005469754338264465,
                -0.01754084601998329
              ]
            ],
            [
              [
                0.013842790387570858,
                0.0020589709747582674,
                -0.03459872677922249,
                0.017382076010107994,
                -0.010750683024525642,
                -0.03393014520406723,
                -0.0036205656360834837,
                -0.0016290184576064348
              ],
              [
                -0.08973842859268188,
                0.04002636298537254,
                0.03798163682222366,
                0.01139895524829626,
                -0.03318827226758003,
                0.06237095594406128,
                -0.0262546855956316,
                0.04584893211722374
              ],
              [
                -0.02670223079621792,
                0.03945664316415787,
                0.033327437937259674,
                -0.012912365607917309,
                -0.042415473610162735,
                0.04431035742163658,
                0.016144271939992905,
                0.04802722856402397
              ],
              [
                -0.0010604045819491148,
                -0.009611752815544605,
                -0.0019232056802138686,
                0.01692804880440235,
                0.01789238303899765,
                0.03454772010445595,
                -0.02207069657742977,
                0.010025598108768463
              ],
              [
                0.0342240035533905,
                -0.011308605782687664,
                0.022349774837493896,
                -0.028465498238801956,
                0.0368272066116333,
                0.00493389368057251,
                -0.004615349229425192,
                0.011992943473160267
              ],
              [
                0.01187039166688919,
                -0.020019717514514923,
                0.029131093993782997,
                -0.035065170377492905,
                0.028649520128965378,
                -0.014293454587459564,
                -0.025716058909893036,
                -0.004857123363763094
              ],
              [
                0.021575795486569405,
                0.018398815765976906,
                0.025441644713282585,
                -0.014768737368285656,
                0.03279460594058037,
                0.0015210758429020643,
                -0.018024379387497902,
                -0.005303629208356142
              ],
              [
                -0.02568994089961052,
                -0.0074036312289536,
                -0.04351392388343811,
                0.05689089000225067,
                0.011043615639209747,
                -0.04445229843258858,
                -0.04365883767604828,
                -0.023234393447637558
              ]
            ],
            [
              [
                -0.002237627748399973,
                -0.020226484164595604,
                -0.0604044571518898,
                0.0008000948582775891,
                -0.006760423071682453,
                -0.024166161194443703,
                0.03677583485841751,
                -0.026135604828596115
              ],
              [
                0.05581307411193848,
                -0.024480191990733147,
                0.07231250405311584,
                -0.011111553758382797,
                -0.06382094323635101,
                0.025877727195620537,
                -0.04031689092516899,
                0.0057973177172243595
              ],
              [
                -0.05324142426252365,
                -0.0036254453007131815,
                0.030114101245999336,
                0.02588692493736744,
                -0.059145960956811905,
                -0.013292771764099598,
                -0.011981075629591942,
                0.039384134113788605
              ],
              [
                -0.009130737744271755,
                -0.0192654337733984,
                0.014567199163138866,
                0.01662837341427803,
                0.018883757293224335,
                -0.049311015754938126,
                0.017005031928420067,
                0.017214665189385414
              ],
              [
                -0.03143319487571716,
                0.021126993000507355,
                -0.015125416219234467,
                0.012378841638565063,
                0.04161369055509567,
                -0.02815609611570835,
                -0.02076789364218712,
                -0.0012201647041365504
              ],
              [
                0.03220268711447716,
                0.004031924996525049,
                0.001403041067533195,
                0.022217322140932083,
                0.02737639658153057,
                -0.027592090889811516,
                -0.011182267218828201,
                0.00132370600476861
              ],
              [
                -0.0055333892814815044,
                -0.0042780665680766106,
                -0.01106176059693098,
                0.013089929707348347,
                0.005806425586342812,
                -0.004446231760084629,
                -0.051135480403900146,
                0.007715494837611914
              ],
              [
                0.040979985147714615,
                0.00869000144302845,
                0.006846558768302202,
                -0.002337063429877162,
                0.021040944382548332,
                -0.04104467108845711,
                -0.02085397019982338,
                0.015653245151042938
              ]
            ],
            [
              [
                0.0376107320189476,
                -0.007224747911095619,
                -0.05519348382949829,
                -0.01007571816444397,
                -0.013128546066582203,
                -0.013751941733062267,
                -0.011138075031340122,
                -0.04284904524683952
              ],
              [
                0.12329018115997314,
                0.022593969479203224,
                0.15289267897605896,
                -0.056378062814474106,
                -0.06724673509597778,
                0.09963425993919373,
                0.02394811250269413,
                0.077742800116539
              ],
              [
                -0.010409410111606121,
                0.026529675349593163,
                0.018648387864232063,
                -0.024294627830386162,
                -0.053411684930324554,
                0.04150966927409172,
                -0.011982732452452183,
                0.06805858761072159
              ],
              [
                0.025047054514288902,
                0.02378351055085659,
                0.015736281871795654,
                0.03944920748472214,
                -0.016156045719981194,
                -0.00457582576200366,
                0.07414780557155609,
                -0.0019410595996305346
              ],
              [
                -0.03840271383523941,
                0.012462940998375416,
                0.0014544827863574028,
                0.01893416792154312,
                0.01624687947332859,
                0.02500351145863533,
                0.005070980172604322,
                -0.004014391452074051
              ],
              [
                0.03825046867132187,
                0.019368957728147507,
                0.0032379762269556522,
                0.010348900221288204,
                0.013447193428874016,
                -0.03118412382900715,
                0.03969554603099823,
                0.027320489287376404
              ],
              [
                -0.026269981637597084,
                -0.02405318059027195,
                -0.026398446410894394,
                -0.000323789834510535,
                0.011413932777941227,
                -0.04637477174401283,
                0.040623739361763,
                -0.004974212497472763
              ],
              [
                0.06772954016923904,
                -0.0072431424632668495,
                -0.03647051006555557,
                0.0064702690578997135,
                0.014429198578000069,
                -0.022341415286064148,
                0.0018178883474320173,
                0.01608288288116455
              ]
            ],
            [
              [
                0.03470451384782791,
                0.0015686135739088058,
                -0.040904149413108826,
                -0.015004051849246025,
                -0.014652712270617485,
                -0.008441743440926075,
                0.02800111658871174,
                -0.05803006514906883
              ],
              [
                0.006216179113835096,
                0.006677634082734585,
                0.08766508102416992,
                -0.0899311900138855,
                -0.0856001228094101,
                -0.09570956975221634,
                0.008797584101557732,
                0.09664035588502884
              ],
              [
                -0.04804984852671623,
                -0.029797213152050972,
                0.001395626226440072,
                -0.04212286323308945,
                -0.03669450804591179,
                -0.05526689067482948,
                0.04955990985035896,
                0.0938260555267334
              ],
              [
                0.006408770103007555,
                -0.004193829372525215,
                -0.0113334646448493,
                -0.044130127876996994,
                -0.006502769887447357,
                -0.018384290859103203,
                0.09289860725402832,
                0.04360520839691162
              ],
              [
                -0.01758505031466484,
                -0.021226923912763596,
                -0.005059371702373028,
                -0.0342525951564312,
                0.004741348326206207,
                -0.014218461699783802,
                -0.009962477721273899,
                0.03828013315796852
              ],
              [
                -0.035697098821401596,
                -0.003224150510504842,
                0.025882387533783913,
                -0.028161801397800446,
                0.017698151990771294,
                0.001330941217020154,
                -0.018244171515107155,
                0.037503212690353394
              ],
              [
                -0.0068396893329918385,
                0.0009008317138068378,
                -0.0273504126816988,
                -0.009717597626149654,
                0.02006557583808899,
                0.024586910381913185,
                0.019995279610157013,
                0.013917850330471992
              ],
              [
                -0.006142943166196346,
                -0.037785422056913376,
                -0.0248942319303751,
                -0.01762385480105877,
                0.023828238248825073,
                -0.030441951006650925,
                -0.012454681098461151,
                0.038835614919662476
              ]
            ],
            [
              [
                0.03681378811597824,
                -0.03657998889684677,
                -0.04014210402965546,
                0.012089075520634651,
                -0.03903503343462944,
                -0.09417612105607986,
                -0.01448728982359171,
                -0.023410333320498466
              ],
              [
                -0.12856033444404602,
                -0.04139922559261322,
                0.05871174857020378,
                0.008291480131447315,
                -0.00026720401365309954,
                -0.11775559931993484,
                0.1368599236011505,
                0.13628286123275757
              ],
              [
                -0.021882006898522377,
                -0.030045008286833763,
                0.01361823733896017,
                0.111012302339077,
                -0.004002903122454882,
                -0.07415939122438431,
                0.08942940831184387,
                0.04104926064610481
              ],
              [
                -0.010094690136611462,
                0.01289165299385786,
                0.010307815857231617,
                -0.041913263499736786,
                -0.025263775140047073,
                -0.036523785442113876,
                0.12633946537971497,
                0.012058994732797146
              ],
              [
                0.023731665685772896,
                0.006549878045916557,
                -0.0417071133852005,
                0.036195870488882065,
                0.03290603309869766,
                -0.03475821763277054,
                0.03115255758166313,
                -0.0021279368083924055
              ],
              [
                -0.0029582821298390627,
                -0.006107623688876629,
                0.014407110400497913,
                -0.014399159699678421,
                0.024474255740642548,
                -0.018581314012408257,
                0.06565622985363007,
                -0.02703119069337845
              ],
              [
                0.0233310516923666,
                0.008831564337015152,
                -0.02782081626355648,
                0.05582824721932411,
                -0.001308496342971921,
                -0.0371188260614872,
                0.013208827003836632,
                -0.02204793319106102
              ],
              [
                -0.04047948867082596,
                0.008467107079923153,
                0.033378273248672485,
                0.006422806531190872,
                0.016160989180207253,
                -0.026737971231341362,
                -0.007127579767256975,
                0.013543359935283661
              ]
            ],
            [
              [
                0.021608633920550346,
                -0.053602322936058044,
                -0.06279881298542023,
                0.05456016957759857,
                -0.03147703409194946,
                -0.05893725901842117,
                0.022586273029446602,
                -0.009593135677278042
              ],
              [
                -0.11383935809135437,
                0.06465735286474228,
                0.12609131634235382,
                -0.016366325318813324,
                0.05013779550790787,
                -0.1479301154613495,
                0.12160524725914001,
                0.016295896843075752
              ],
              [
                -0.04046829789876938,
                0.005085510201752186,
                0.08819495886564255,
                0.07177107036113739,
                0.03160155564546585,
                -0.09929942339658737,
                0.07444988936185837,
                -0.056108344346284866
              ],
              [
                -0.04097593575716019,
                -0.025426583364605904,
                0.06793593615293503,
                -0.06050297990441322,
                -0.025646144524216652,
                -0.04530985280871391,
                0.05807129666209221,
                -0.04293351620435715
              ],
              [
                -0.037794094532728195,
                -0.020416291430592537,
                0.016634786501526833,
                0.024984726682305336,
                -0.01812799461185932,
                -0.026886656880378723,
                0.04440997540950775,
                -0.029710616916418076
              ],
              [
                0.033081427216529846,
                -0.013183576054871082,
                0.00705077825114131,
                0.018766198307275772,
                -0.005578707903623581,
                -0.008855200372636318,
                0.014015838503837585,
                -0.013388625346124172
              ],
              [
                0.009089220315217972,
                -0.013739857822656631,
                0.018784845247864723,
                0.04059581086039543,
                -0.005977319553494453,
                -0.015824606642127037,
                0.04958496242761612,
                -0.00499724643304944
              ],
              [
                0.004075126722455025,
                0.011335769668221474,
                0.034629594534635544,
                -0.06645230203866959,
                0.015709858387708664,
                0.018147921189665794,
                0.02827974036335945,
                -0.050427984446287155
              ]
            ],
            [
              [
                -0.011263660155236721,
                -0.03351263329386711,
                -0.034249234944581985,
                0.021343888714909554,
                -0.013458114117383957,
                -0.047056324779987335,
                0.014436078257858753,
                -0.003599367802962661
              ],
              [
                -0.007223046384751797,
                0.13639391958713531,
                0.04009576886892319,
                -0.060086291283369064,
                0.11953799426555634,
                0.09792238473892212,
                0.04539460316300392,
                0.039805687963962555
              ],
              [
                0.01662117801606655,
                0.067021444439888,
                0.03659062460064888,
                0.017912808805704117,
                0.10865897685289383,
                0.06563030928373337,
                0.08259835839271545,
                0.036881331354379654
              ],
              [
                0.019023671746253967,
                -0.01519516110420227,
                -0.02794470824301243,
                -0.038886092603206635,
                0.004449218045920134,
                0.02414294146001339,
                0.03192368522286415,
                0.013093248009681702
              ],
              [
                0.05467291921377182,
                -0.016598504036664963,
                0.027394002303481102,
                0.02363964170217514,
                0.001386406016536057,
                0.03241557255387306,
                -0.008919928222894669,
                0.0007814032142050564
              ],
              [
                0.046301502734422684,
                -0.002765639452263713,
                0.005463076289743185,
                -0.011644172482192516,
                -0.01670672558248043,
                0.013105102814733982,
                -0.014795097522437572,
                0.011683307588100433
              ],
              [
                0.057002581655979156,
                -0.009753328748047352,
                0.03755759075284004,
                -0.011981416493654251,
                -0.010599249042570591,
                0.03587770462036133,
                0.016089167445898056,
                -0.0027752474416047335
              ],
              [
                0.0341339036822319,
                -0.006446255370974541,
                -0.02541338838636875,
                0.019086569547653198,
                0.0019608086440712214,
                0.005174238234758377,
                -0.00671943835914135,
                0.01443550642579794
              ]
            ],
            [
              [
                0.007494064979255199,
                -0.06634380668401718,
                -0.02259446680545807,
                0.006023491732776165,
                -0.0038851131685078144,
                -0.06194039806723595,
                0.020379479974508286,
                0.006092036608606577
              ],
              [
                -0.05320674926042557,
                -0.007455785758793354,
                -0.04477282240986824,
                -0.12659837305545807,
                0.15758170187473297,
                -0.008752798661589622,
                -0.010396609082818031,
                0.03488794341683388
              ],
              [
                -0.036813125014305115,
                -0.02053624764084816,
                -0.03526593744754791,
                -0.0548161119222641,
                0.017098184674978256,
                0.002957515185698867,
                -0.008652578108012676,
                -0.017328830435872078
              ],
              [
                -0.00941808708012104,
                -0.045664623379707336,
                -0.08384056389331818,
                -0.022178659215569496,
                0.028172682970762253,
                -0.0182855986058712,
                0.006163022480905056,
                -0.020848669111728668
              ],
              [
                0.01556385774165392,
                -0.02783377654850483,
                -0.04794161766767502,
                -0.013231461867690086,
                -0.0034832069650292397,
                -0.015590373426675797,
                -0.0016948628472164273,
                -0.018961921334266663
              ],
              [
                0.024328332394361496,
                -0.02913178689777851,
                -0.036673735827207565,
                0.015300285071134567,
                -0.017175983637571335,
                -0.012790179811418056,
                -0.03455279394984245,
                -0.023746490478515625
              ],
              [
                0.0038444369565695524,
                -0.0028525888919830322,
                -0.038910504430532455,
                -0.04676087573170662,
                -0.028433330357074738,
                -0.012330213561654091,
                -0.027830645442008972,
                -0.012787016108632088
              ],
              [
                0.0334065742790699,
                -0.02761043608188629,
                -0.012957317754626274,
                -0.03255288675427437,
                0.0022695695515722036,
                -0.009741434827446938,
                -0.05302988365292549,
                -0.002554010134190321
              ]
            ],
            [
              [
                -0.004415327217429876,
                -0.0042527103796601295,
                -0.01407348457723856,
                0.03218577057123184,
                0.0012136342702433467,
                -0.01997503824532032,
                0.020676815882325172,
                -0.002676570089533925
              ],
              [
                0.05153388902544975,
                -0.07819469273090363,
                -0.08954191207885742,
                0.05838368460536003,
                0.08777317404747009,
                0.03143279254436493,
                0.010825936682522297,
                0.006494227796792984
              ],
              [
                -0.011764110065996647,
                -0.02566666342318058,
                -0.046894390136003494,
                0.02314062975347042,
                -0.024131150916218758,
                0.03732994943857193,
                -0.0050761159509420395,
                -0.02657303400337696
              ],
              [
                0.0013721903087571263,
                0.006333738099783659,
                -0.05315257981419563,
                0.06376246362924576,
                0.013355636969208717,
                -0.0036512420047074556,
                0.004625293426215649,
                -0.04317344352602959
              ],
              [
                0.008796688169240952,
                0.0061517320573329926,
                -0.02746889367699623,
                0.02578846365213394,
                -0.014688415452837944,
                -0.013826369307935238,
                0.020242750644683838,
                -0.012185686267912388
              ],
              [
                -0.014170603826642036,
                0.0008446212741546333,
                -0.0072340345941483974,
                -0.0013173724291846156,
                -0.003370255697518587,
                -0.03687017410993576,
                -0.011782052926719189,
                -0.027331508696079254
              ],
              [
                -0.020184198394417763,
                -0.00446501187980175,
                -0.029531465843319893,
                0.0001818891178118065,
                -0.012737685814499855,
                -0.03132263571023941,
                -0.010065772570669651,
                -0.01328660361468792
              ],
              [
                0.01352995540946722,
                -0.031013619154691696,
                -0.04704653471708298,
                0.000635397678706795,
                -0.03347844257950783,
                -0.01638028956949711,
                0.01987977884709835,
                0.0007913501467555761
              ]
            ],
            [
              [
                -0.016985898837447166,
                0.001494398806244135,
                -0.008317677304148674,
                -0.022291578352451324,
                0.00015917667769826949,
                -0.023358803242444992,
                -0.00415500532835722,
                -0.004610867705196142
              ],
              [
                -0.01182970404624939,
                0.030515221878886223,
                -0.0007660820847377181,
                -0.066292904317379,
                0.057782553136348724,
                0.060181427747011185,
                -0.045727238059043884,
                0.006588920019567013
              ],
              [
                -0.01068949792534113,
                0.016555340960621834,
                0.032775331288576126,
                -0.06143949180841446,
                -0.014378787018358707,
                0.027710188180208206,
                0.006858117878437042,
                -0.002867661416530609
              ],
              [
                0.020693780854344368,
                0.032920073717832565,
                0.03336867317557335,
                0.011706302873790264,
                0.014629052020609379,
                -0.00420001707971096,
                -0.015650926157832146,
                0.011868654750287533
              ],
              [
                0.00540679506957531,
                0.020692527294158936,
                0.03221461549401283,
                -0.038383010774850845,
                0.0026821589563041925,
                0.00380063452757895,
                0.008237132802605629,
                -0.0051711564883589745
              ],
              [
                0.03024602308869362,
                0.0066857486963272095,
                0.03138962760567665,
                -0.03549753129482269,
                0.025417720898985863,
                -0.01788531057536602,
                0.004941877909004688,
                0.01615901105105877
              ],
              [
                0.021921172738075256,
                0.03545881807804108,
                0.020766327157616615,
                0.03365318477153778,
                0.006603046786040068,
                -0.022251011803746223,
                0.014406051486730576,
                0.0037956831511110067
              ],
              [
                -0.013997085392475128,
                0.03157826513051987,
                0.0048333629965782166,
                -0.00631830794736743,
                -0.00901748239994049,
                -0.0021461606957018375,
                -0.004447351209819317,
                0.0300019308924675
              ]
            ],
            [
              [
                -0.020430032163858414,
                -0.03322569280862808,
                -0.022080188617110252,
                0.036737579852342606,
                -0.00915568508207798,
                -0.004803983494639397,
                0.008607747033238411,
                -0.01686711423099041
              ],
              [
                -0.041839003562927246,
                -0.032956067472696304,
                -0.03174808248877525,
                0.02733096480369568,
                0.02472982555627823,
                0.002812729449942708,
                -0.04090452566742897,
                0.004738944116979837
              ],
              [
                0.01663382351398468,
                -0.009107603691518307,
                -0.03885119408369064,
                -0.01049959845840931,
                -0.013703069649636745,
                0.01935959793627262,
                0.0146170100197196,
                -0.023190516978502274
              ],
              [
                0.02759360708296299,
                -0.006401280872523785,
                -0.05664372816681862,
                0.046003568917512894,
                0.02428511716425419,
                -0.029073134064674377,
                -0.027506021782755852,
                -0.0386626236140728
              ],
              [
                0.016170833259820938,
                0.009628070518374443,
                -0.04437575861811638,
                -0.018774546682834625,
                0.009024204686284065,
                -0.050543684512376785,
                -0.01134798489511013,
                -0.021146606653928757
              ],
              [
                -0.03523052856326103,
                -0.005887242965400219,
                -0.017751852050423622,
                -0.02920197695493698,
                -0.012071141973137856,
                -0.006326079834252596,
                -0.04478713870048523,
                0.0033832695335149765
              ],
              [
                0.07188817858695984,
                0.006352765951305628,
                -0.015929963439702988,
                -0.005589423701167107,
                -0.034209366887807846,
                0.019482139497995377,
                0.011561105959117413,
                0.01331936102360487
              ],
              [
                -0.03311001881957054,
                -0.013713217340409756,
                -0.008204125799238682,
                -0.04354031756520271,
                0.009896899573504925,
                -0.010334952734410763,
                -0.021498417481780052,
                0.03462698310613632
              ]
            ],
            [
              [
                0.007358994800597429,
                -0.017639022320508957,
                -0.011939003132283688,
                0.0030704322271049023,
                -0.0004058114136569202,
                0.005490364506840706,
                -0.013207362033426762,
                -0.007524319924414158
              ],
              [
                0.0004206852172501385,
                -0.02774151787161827,
                -0.02610236406326294,
                -0.014493277296423912,
                0.01182563230395317,
                0.042702771723270416,
                -0.032849933952093124,
                -0.008195057511329651
              ],
              [
                -0.0052181510254740715,
                0.006044506561011076,
                -0.022601531818509102,
                -0.01217708270996809,
                -0.051271289587020874,
                0.018355417996644974,
                0.02891702950000763,
                -0.02968509867787361
              ],
              [
                -0.004806064069271088,
                0.004125996492803097,
                -0.08402750641107559,
                0.021485289558768272,
                -0.004821345675736666,
                -0.015871331095695496,
                -0.00429848488420248,
                -0.07591862231492996
              ],
              [
                -0.0016129998257383704,
                0.01233499776571989,
                -0.028852812945842743,
                0.020942403003573418,
                0.007569905836135149,
                0.0031545613892376423,
                -0.04026336595416069,
                -0.010968233458697796
              ],
              [
                -0.03970326855778694,
                -0.001555246883071959,
                0.00030491131474263966,
                0.01714957319200039,
                -0.0067359269596636295,
                0.01737305335700512,
                -0.011384651996195316,
                0.0041653187945485115
              ],
              [
                -0.007440580520778894,
                -0.04293809458613396,
                -0.012223110534250736,
                0.019195500761270523,
                -0.00473206490278244,
                -0.018036173656582832,
                0.03841009363532066,
                0.04947247728705406
              ],
              [
                0.0065680090337991714,
                0.018338903784751892,
                -0.04849056527018547,
                0.06563486158847809,
                0.006022581830620766,
                -0.0020179450511932373,
                -0.02527163177728653,
                -0.04500371962785721
              ]
            ],
            [
              [
                0.016395581886172295,
                0.014627435244619846,
                0.004243643023073673,
                0.014890006743371487,
                -0.011697501875460148,
                0.016976747661828995,
                -0.050021328032016754,
                0.00583428330719471
              ],
              [
                -0.00028627642313949764,
                0.026296725496649742,
                0.0049283383414149284,
                -0.012919412925839424,
                -0.010032744146883488,
                0.05017686262726784,
                -0.03601456433534622,
                0.01691773720085621
              ],
              [
                -0.030830353498458862,
                -0.02330140955746174,
                0.0027536663692444563,
                -0.010620363987982273,
                -0.010542764328420162,
                -0.01144372671842575,
                0.00525567214936018,
                0.012029591016471386
              ],
              [
                0.007236991543322802,
                -0.0035702704917639494,
                -0.01940542459487915,
                0.012062427587807178,
                -0.006927055306732655,
                -0.012507899664342403,
                -0.017346663400530815,
                -0.007000401150435209
              ],
              [
                -0.020677020773291588,
                -0.015537356026470661,
                0.015817146748304367,
                0.001242898521013558,
                0.009845471940934658,
                -0.00907886028289795,
                -0.047810595482587814,
                0.005582383833825588
              ],
              [
                -0.012943802401423454,
                0.008769204840064049,
                -0.0004006717645097524,
                -0.0032679324503988028,
                0.011890046298503876,
                0.013917743228375912,
                0.004719315562397242,
                0.011526111513376236
              ],
              [
                -0.055084794759750366,
                0.01313245389610529,
                0.01740599237382412,
                -0.011193583719432354,
                -0.013317780569195747,
                0.033835336565971375,
                0.0035170188639312983,
                0.009035974740982056
              ],
              [
                0.006902627646923065,
                0.008207695558667183,
                -0.0021157236769795418,
                0.07110631465911865,
                -0.012217449024319649,
                -0.01551172323524952,
                0.017229702323675156,
                -0.017044955864548683
              ]
            ],
            [
              [
                -0.0033903082367032766,
                -0.03010837361216545,
                0.009052406065165997,
                -0.004766574129462242,
                -0.006499381270259619,
                -0.0299821849912405,
                -0.008475673384964466,
                -0.019275829195976257
              ],
              [
                -0.03661927953362465,
                -0.03965810313820839,
                0.00011479414388304576,
                0.013265511952340603,
                0.0053759245201945305,
                -0.03221280127763748,
                0.040170375257730484,
                -0.0077430494129657745
              ],
              [
                0.00909449253231287,
                -0.02552957832813263,
                -0.02161862701177597,
                0.025838227942585945,
                0.016825655475258827,
                0.0008839260553941131,
                0.04218851774930954,
                -0.024278948083519936
              ],
              [
                0.014149297028779984,
                -0.0037077146116644144,
                -0.008689163252711296,
                0.03560980409383774,
                0.00791157502681017,
                -0.04764457046985626,
                -0.000198558482225053,
                -0.01207802165299654
              ],
              [
                0.016737114638090134,
                -0.017286237329244614,
                -0.01932852528989315,
                -0.032724529504776,
                -0.0009879189310595393,
                -0.012683739885687828,
                -0.020650304853916168,
                0.0016880141338333488
              ],
              [
                -0.01461882796138525,
                0.024235598742961884,
                -0.036318257451057434,
                0.01985872909426689,
                -0.0067653232254087925,
                0.02861667610704899,
                0.06576468795537949,
                -0.022874249145388603
              ],
              [
                -0.005917892791330814,
                0.00945931114256382,
                0.007873989641666412,
                -0.016195397824048996,
                0.000545977964065969,
                -0.0019422676414251328,
                0.019039280712604523,
                -0.04965749382972717
              ],
              [
                0.05007172003388405,
                -0.026388956233859062,
                0.041776880621910095,
                -0.02720097079873085,
                0.024627050384879112,
                0.012804974801838398,
                -0.018818046897649765,
                0.01763860695064068
              ]
            ],
            [
              [
                0.004980762954801321,
                -0.02029458060860634,
                0.03616034612059593,
                -0.024295976385474205,
                -0.009775707498192787,
                -0.012683775275945663,
                -0.004044055938720703,
                0.0027451699133962393
              ],
              [
                -0.013871333561837673,
                -0.028805507346987724,
                -0.00024092370586004108,
                0.0127875292673707,
                -0.004056125413626432,
                -0.007631285581737757,
                0.011100155301392078,
                -0.019373098388314247
              ],
              [
                -0.01140177994966507,
                0.01880345121026039,
                -0.053817469626665115,
                -0.0234285369515419,
                -0.01917172595858574,
                0.03506666421890259,
                0.012575634755194187,
                -0.06256143748760223
              ],
              [
                -0.005018401890993118,
                -0.005976277869194746,
                -0.009793635457754135,
                0.002785494551062584,
                -0.007163736037909985,
                0.001336355577223003,
                -0.005060246679931879,
                -0.0169411338865757
              ],
              [
                0.018329044803977013,
                0.028298113495111465,
                0.0005996230756863952,
                0.011757642030715942,
                -0.015072384849190712,
                0.008264048025012016,
                -0.022654734551906586,
                0.03679530322551727
              ],
              [
                0.012065534479916096,
                -0.024287303909659386,
                0.016959765926003456,
                -0.013560225255787373,
                -0.010260084643959999,
                0.0015752530889585614,
                -0.0009728177101351321,
                -0.019733401015400887
              ],
              [
                0.012095142155885696,
                0.003042164957150817,
                -0.026878224685788155,
                6.7673456214834e-05,
                0.010142000392079353,
                0.005124421790242195,
                -0.006172945257276297,
                0.0144726000726223
              ],
              [
                -0.019467078149318695,
                -0.03597889095544815,
                -0.02796853333711624,
                -0.03498145937919617,
                0.007703029550611973,
                0.0030758650973439217,
                -0.05777059495449066,
                -0.0034680759999901056
              ]
            ],
            [
              [
                0.0005009741871617734,
                0.017795845866203308,
                0.0016051136190071702,
                -0.019981082528829575,
                0.0012773101916536689,
                -0.01364761870354414,
                0.028203263878822327,
                -0.011969397775828838
              ],
              [
                -0.008892638608813286,
                0.026873765513300896,
                -0.0018188044195994735,
                -0.0424320362508297,
                -0.0019124610116705298,
                0.03447212651371956,
                0.007995991967618465,
                -0.009018763899803162
              ],
              [
                0.004882976412773132,
                0.0010741828009486198,
                -0.04041473940014839,
                0.026513490825891495,
                0.006607397925108671,
                -0.026323070749640465,
                0.03682519122958183,
                -0.0006088733789511025
              ],
              [
                0.01719745807349682,
                -0.019978558644652367,
                0.01644354872405529,
                -0.022132737562060356,
                0.0022349536884576082,
                0.0010595419444143772,
                -0.013849247246980667,
                0.016376351937651634
              ],
              [
                -0.031172960996627808,
                0.0019743340089917183,
                0.03227075934410095,
                0.002030205214396119,
                -0.037381529808044434,
                0.010269676335155964,
                0.006252402905374765,
                0.029221799224615097
              ],
              [
                0.025697791948914528,
                0.0029785858932882547,
                0.04704595357179642,
                -0.008592518977820873,
                -0.022533267736434937,
                0.008168250322341919,
                0.019540823996067047,
                0.00529618002474308
              ],
              [
                0.015862872824072838,
                -0.012242261320352554,
                -0.00263757212087512,
                -0.003035781206563115,
                0.02377479337155819,
                0.01034238375723362,
                -0.04329488053917885,
                0.00673915958032012
              ],
              [
                -0.0161686223000288,
                0.02279854193329811,
                -0.026299389079213142,
                0.01934969611465931,
                -0.004656361415982246,
                -0.00878534372895956,
                -0.012805101461708546,
                0.04317905753850937
              ]
            ],
            [
              [
                0.0348791629076004,
                -0.014664572663605213,
                -0.018861744552850723,
                0.005031909793615341,
                -0.013180742040276527,
                -0.04623270407319069,
                0.04358959197998047,
                -0.007263850420713425
              ],
              [
                -0.0060406699776649475,
                -0.01686294563114643,
                0.0001966729323612526,
                0.017584368586540222,
                -0.013459892012178898,
                -0.04383433610200882,
                0.02704530581831932,
                0.0011979894479736686
              ],
              [
                0.03364915773272514,
                -0.06418206542730331,
                -0.011112569831311703,
                0.037661053240299225,
                0.008195901289582253,
                -0.036351528018713,
                -0.001996453385800123,
                -0.005241910926997662
              ],
              [
                -0.03872073441743851,
                0.017800679430365562,
                0.0014599879505112767,
                -0.0028795264661312103,
                -0.01060136966407299,
                -0.0243133045732975,
                -0.01501109916716814,
                0.011510392650961876
              ],
              [
                -0.04459618031978607,
                -0.0031130672432482243,
                0.006121761165559292,
                -0.007196459453552961,
                -0.003224385669454932,
                -0.0015801992267370224,
                0.05717150494456291,
                -0.03315512835979462
              ],
              [
                0.005227512214332819,
                -0.01001027226448059,
                -0.05388651788234711,
                -0.05680305138230324,
                -0.027915973216295242,
                -0.003970864694565535,
                -0.013904095627367496,
                -0.025605106726288795
              ],
              [
                0.015339558012783527,
                -0.04339977726340294,
                -0.04785679280757904,
                0.04360635578632355,
                0.0021307365968823433,
                -0.01235125120729208,
                -0.0376172810792923,
                -0.00794309563934803
              ],
              [
                0.00198540766723454,
                -0.022377735003829002,
                0.042580850422382355,
                -0.0024902098812162876,
                -0.008207895793020725,
                0.008280746638774872,
                0.0009227442205883563,
                0.06280961632728577
              ]
            ],
            [
              [
                0.03297647461295128,
                0.019859597086906433,
                -0.012242472730576992,
                0.003891966538503766,
                -0.0048482222482562065,
                -0.01007136795669794,
                0.02040630392730236,
                -0.0023786453530192375
              ],
              [
                0.03458203375339508,
                -0.007629017345607281,
                -0.029616914689540863,
                0.06038269028067589,
                -0.01863064244389534,
                -0.0010954609606415033,
                -0.0017481448594480753,
                -0.005076256580650806
              ],
              [
                0.04068565368652344,
                -0.012106888927519321,
                -0.010488372296094894,
                0.014086881652474403,
                0.007015806157141924,
                0.00010904065129579976,
                0.0013812107499688864,
                -0.030109353363513947
              ],
              [
                -0.03234517201781273,
                0.0050644041039049625,
                0.006299295928329229,
                -0.013181952759623528,
                -0.01772848516702652,
                0.013479309156537056,
                0.03235078603029251,
                0.015935571864247322
              ],
              [
                -0.0021947557106614113,
                -0.013508450239896774,
                0.008113854564726353,
                -0.016149861738085747,
                -0.006999211851507425,
                0.011126398108899593,
                0.02913340926170349,
                -0.012705675326287746
              ],
              [
                -0.036618392914533615,
                0.0003656170447356999,
                -0.030747190117836,
                0.020572153851389885,
                -0.012779592536389828,
                -0.04258174076676369,
                -0.0006864570314064622,
                -0.006569253280758858
              ],
              [
                -0.0008758017211221159,
                0.017678389325737953,
                -0.00113748072180897,
                -0.013622439466416836,
                -0.017395809292793274,
                0.016833186149597168,
                -0.04081996902823448,
                0.03184416890144348
              ],
              [
                0.024082588031888008,
                -0.009541752748191357,
                -0.024254893884062767,
                0.01518225483596325,
                -0.018789120018482208,
                -0.00854458101093769,
                0.03374985232949257,
                -0.03742682933807373
              ]
            ],
            [
              [
                0.021830441430211067,
                0.038292162120342255,
                0.028498481959104538,
                -0.037817902863025665,
                0.05389422923326492,
                -0.021916866302490234,
                -0.015596072189509869,
                0.006002851761877537
              ],
              [
                0.03306806460022926,
                0.029423192143440247,
                0.024338360875844955,
                -0.015091576613485813,
                0.025960005819797516,
                0.004507758188992739,
                -0.030289575457572937,
                0.03777974098920822
              ],
              [
                -0.005160324741154909,
                0.007221794221550226,
                0.03062673658132553,
                -0.029277212917804718,
                -0.009391648694872856,
                0.019926194101572037,
                -0.014268523082137108,
                0.017396163195371628
              ],
              [
                -0.023393617942929268,
                -0.007818692363798618,
                -0.010440630838274956,
                -0.04220125079154968,
                -0.036969952285289764,
                0.00500395568087697,
                0.02944744937121868,
                0.04340624436736107
              ],
              [
                0.01743238791823387,
                0.017720462754368782,
                0.007591558154672384,
                -0.025768814608454704,
                0.019222434610128403,
                0.015195607207715511,
                0.016338560730218887,
                0.018477322533726692
              ],
              [
                0.023864366114139557,
                0.01642349176108837,
                0.0256076417863369,
                0.0061445762403309345,
                0.004979567136615515,
                -0.013372376561164856,
                -0.007357354275882244,
                0.018811490386724472
              ],
              [
                -0.00806853175163269,
                -0.014610623940825462,
                0.011750520206987858,
                -0.005263889208436012,
                0.004191015847027302,
                -0.016784803941845894,
                -0.00909711979329586,
                0.037124183028936386
              ],
              [
                0.03617531433701515,
                0.019408199936151505,
                -0.020564407110214233,
                -0.027803856879472733,
                -0.04621501639485359,
                0.011234579607844353,
                -0.004081892315298319,
                -0.05256266891956329
              ]
            ],
            [
              [
                -0.023824909701943398,
                -0.017213042825460434,
                0.04384445399045944,
                -0.0028072271961718798,
                0.02350904978811741,
                -0.02512662671506405,
                -0.027033409103751183,
                0.009032927453517914
              ],
              [
                0.0020138826221227646,
                -0.03548479080200195,
                0.019912978634238243,
                0.006900174077600241,
                0.01996263489127159,
                -0.013897339813411236,
                -0.036470357328653336,
                -0.009831942617893219
              ],
              [
                0.001937261433340609,
                0.02288632094860077,
                -0.017686979845166206,
                -0.03475312888622284,
                -0.008669975213706493,
                -0.024179769679903984,
                -0.0743827149271965,
                -0.020340995863080025
              ],
              [
                -0.01408530306071043,
                -0.006443885155022144,
                -0.04082481563091278,
                0.06748656183481216,
                0.0011089998297393322,
                0.020710989832878113,
                0.03740219399333,
                -0.007878514006733894
              ],
              [
                0.017338208854198456,
                -0.03456674888730049,
                -0.044866420328617096,
                -0.04566595330834389,
                -0.01100097969174385,
                -0.03105895221233368,
                -0.013874662108719349,
                -0.029042109847068787
              ],
              [
                0.0889522060751915,
                0.013335071504116058,
                -0.006824993994086981,
                0.023269260302186012,
                -0.007089413236826658,
                -0.0012272336753085256,
                0.002794132800772786,
                0.027985069900751114
              ],
              [
                0.022945966571569443,
                0.022089695557951927,
                -0.044527679681777954,
                0.05364412069320679,
                0.004506634548306465,
                -0.047186464071273804,
                -0.0036341988015919924,
                -0.031797830015420914
              ],
              [
                0.07848305255174637,
                -0.014674490317702293,
                0.044580139219760895,
                -0.03984697908163071,
                -0.019293978810310364,
                -0.022760257124900818,
                -0.042665865272283554,
                0.03277904540300369
              ]
            ],
            [
              [
                0.0005548188928514719,
                -0.003666046541184187,
                0.009057522751390934,
                0.009634708054363728,
                -0.008022874593734741,
                0.0004473302105907351,
                -0.04700825735926628,
                -0.012239585630595684
              ],
              [
                0.001968610566109419,
                -0.018072890117764473,
                0.004505604039877653,
                0.016800113022327423,
                -0.026884574443101883,
                -0.009220127016305923,
                -0.02478778176009655,
                -0.02023196779191494
              ],
              [
                0.009016288444399834,
                0.028947994112968445,
                -0.018568679690361023,
                0.018271293491125107,
                -0.028491053730249405,
                -8.84496039361693e-05,
                -0.029650388285517693,
                -0.014477389864623547
              ],
              [
                -0.006602410692721605,
                -0.03467657044529915,
                0.024431973695755005,
                0.03746457397937775,
                -0.010026957839727402,
                -0.0299613568931818,
                0.06800827383995056,
                -0.030467716977000237
              ],
              [
                0.018681026995182037,
                0.010695620439946651,
                -0.03875689208507538,
                -0.016045190393924713,
                -0.01421639509499073,
                -0.034145619720220566,
                0.010870872996747494,
                -0.011475627310574055
              ],
              [
                -0.018044643104076385,
                -0.03487180545926094,
                -0.010797496885061264,
                -0.021341154351830482,
                -0.03089963085949421,
                0.013927975669503212,
                0.016786620020866394,
                0.051681410521268845
              ],
              [
                0.018910566344857216,
                0.006622783374041319,
                -0.0022490364499390125,
                0.04713612049818039,
                -0.019168714061379433,
                -0.0133997593075037,
                -0.020616615191102028,
                -0.021783826872706413
              ],
              [
                0.006275998428463936,
                -0.05963026359677315,
                -0.08649246394634247,
                -0.009325793012976646,
                -0.018689578399062157,
                -0.017048999667167664,
                -0.03987603634595871,
                -0.011385161429643631
              ]
            ],
            [
              [
                0.007574731484055519,
                -0.01659410446882248,
                -0.013649042695760727,
                -0.042905837297439575,
                0.014094363898038864,
                0.028815850615501404,
                0.003956133499741554,
                -0.009466256946325302
              ],
              [
                -0.004033348988741636,
                -0.023576777428388596,
                0.015407305210828781,
                -0.03286440670490265,
                0.007727812509983778,
                0.05856204032897949,
                -0.04292523115873337,
                -0.012585426680743694
              ],
              [
                -0.01963518187403679,
                -0.001636264380067587,
                0.01762491837143898,
                -0.01541899237781763,
                -0.036586131900548935,
                0.027770601212978363,
                -0.03327484056353569,
                0.028819864615797997
              ],
              [
                0.032619938254356384,
                0.0012678715866059065,
                0.024449286982417107,
                -0.03028523176908493,
                0.009658517315983772,
                0.04730181023478508,
                0.031134847551584244,
                0.013588647358119488
              ],
              [
                0.02578160911798477,
                0.017232701182365417,
                0.027715379372239113,
                0.010571266524493694,
                -0.005309807136654854,
                -0.007049651350826025,
                -0.005874293856322765,
                0.010339049622416496
              ],
              [
                -0.06126761808991432,
                0.01821388304233551,
                0.03318525850772858,
                -0.017382867634296417,
                0.011004803702235222,
                -0.0207208301872015,
                -0.003989101387560368,
                0.010549553669989109
              ],
              [
                0.021780068054795265,
                -0.009250079281628132,
                0.04628144949674606,
                0.0016236772062256932,
                0.011081519536674023,
                0.05832574516534805,
                -0.0056455424055457115,
                0.014262727461755276
              ],
              [
                -0.05454399436712265,
                0.030497243627905846,
                -0.07170675694942474,
                0.0005241597536951303,
                -0.04446497932076454,
                -0.01527228020131588,
                -0.010604945942759514,
                0.08532790839672089
              ]
            ],
            [
              [
                0.010515100322663784,
                -0.08356481045484543,
                0.024246608838438988,
                0.0032150913029909134,
                0.02727065235376358,
                -0.00924451369792223,
                -0.010211323387920856,
                0.004517230670899153
              ],
              [
                -0.02198018878698349,
                -0.005418045911937952,
                -0.01545302476733923,
                0.012802441604435444,
                -0.045326679944992065,
                -0.030936051160097122,
                0.01582924649119377,
                -0.023092251271009445
              ],
              [
                -0.03903048485517502,
                -0.022756122052669525,
                0.026829693466424942,
                -0.0023539080284535885,
                -0.02996685914695263,
                -0.010027246549725533,
                -0.04218143969774246,
                0.02840033732354641
              ],
              [
                0.022435763850808144,
                -0.022652680054306984,
                -0.037426628172397614,
